digraph Tree {
node [shape=box] ;
0 [label="petal length (cm) <= 2.6\ngini = 0.665\nsamples = 112\nvalue = [37, 34, 41]\nclass = virginica"] ;
1 [label="gini = 0.0\nsamples = 37\nvalue = [37, 0, 0]\nclass = setosa"] ;
0 -> 1 [labeldistance=2.5, labelangle=45, headlabel="True"] ;
2 [label="petal width (cm) <= 1.65\ngini = 0.496\nsamples = 75\nvalue = [0, 34, 41]\nclass = virginica"] ;
0 -> 2 [labeldistance=2.5, labelangle=-45, headlabel="False"] ;
3 [label="petal length (cm) <= 4.95\ngini = 0.193\nsamples = 37\nvalue = [0, 33, 4]\nclass = versicolor"] ;
2 -> 3 ;
4 [label="gini = 0.0\nsamples = 32\nvalue = [0, 32, 0]\nclass = versicolor"] ;
3 -> 4 ;
5 [label="sepal length (cm) <= 6.05\ngini = 0.32\nsamples = 5\nvalue = [0, 1, 4]\nclass = virginica"] ;
3 -> 5 ;
6 [label="petal width (cm) <= 1.55\ngini = 0.5\nsamples = 2\nvalue = [0, 1, 1]\nclass = versicolor"] ;
5 -> 6 ;
7 [label="gini = 0.0\nsamples = 1\nvalue = [0, 0, 1]\nclass = virginica"] ;
6 -> 7 ;
8 [label="gini = 0.0\nsamples = 1\nvalue = [0, 1, 0]\nclass = versicolor"] ;
6 -> 8 ;
9 [label="gini = 0.0\nsamples = 3\nvalue = [0, 0, 3]\nclass = virginica"] ;
5 -> 9 ;
10 [label="petal length (cm) <= 4.85\ngini = 0.051\nsamples = 38\nvalue = [0, 1, 37]\nclass = virginica"] ;
2 -> 10 ;
11 [label="sepal width (cm) <= 3.1\ngini = 0.375\nsamples = 4\nvalue = [0, 1, 3]\nclass = virginica"] ;
10 -> 11 ;
12 [label="gini = 0.0\nsamples = 3\nvalue = [0, 0, 3]\nclass = virginica"] ;
11 -> 12 ;
13 [label="gini = 0.0\nsamples = 1\nvalue = [0, 1, 0]\nclass = versicolor"] ;
11 -> 13 ;
14 [label="gini = 0.0\nsamples = 34\nvalue = [0, 0, 34]\nclass = virginica"] ;
10 -> 14 ;
}
